digraph Tree {
node [shape=box] ;
0 [label="prtal width <= 0.7\nentropy = 1.574\nsamples = 66\nvalue = [29, 38, 38]"] ;
1 [label="entropy = 0.0\nsamples = 22\nvalue = [29, 0, 0]"] ;
0 -> 1 [labeldistance=2.5, labelangle=45, headlabel="True"] ;
2 [label="prtal width <= 1.55\nentropy = 1.0\nsamples = 44\nvalue = [0, 38, 38]"] ;
0 -> 2 [labeldistance=2.5, labelangle=-45, headlabel="False"] ;
3 [label="prtal width <= 1.45\nentropy = 0.179\nsamples = 22\nvalue = [0, 36, 1]"] ;
2 -> 3 ;
4 [label="entropy = 0.0\nsamples = 18\nvalue = [0, 31, 0]"] ;
3 -> 4 ;
5 [label="prtal legth <= 4.95\nentropy = 0.65\nsamples = 4\nvalue = [0, 5, 1]"] ;
3 -> 5 ;
6 [label="entropy = 0.0\nsamples = 3\nvalue = [0, 5, 0]"] ;
5 -> 6 ;
7 [label="entropy = 0.0\nsamples = 1\nvalue = [0, 0, 1]"] ;
5 -> 7 ;
8 [label="prtal width <= 1.85\nentropy = 0.292\nsamples = 22\nvalue = [0, 2, 37]"] ;
2 -> 8 ;
9 [label="prtal width <= 1.65\nentropy = 0.65\nsamples = 8\nvalue = [0, 2, 10]"] ;
8 -> 9 ;
10 [label="prtal legth <= 5.15\nentropy = 0.722\nsamples = 2\nvalue = [0, 1, 4]"] ;
9 -> 10 ;
11 [label="entropy = 0.0\nsamples = 1\nvalue = [0, 1, 0]"] ;
10 -> 11 ;
12 [label="entropy = 0.0\nsamples = 1\nvalue = [0, 0, 4]"] ;
10 -> 12 ;
13 [label="prtal legth <= 4.85\nentropy = 0.592\nsamples = 6\nvalue = [0, 1, 6]"] ;
9 -> 13 ;
14 [label="prtal legth <= 4.65\nentropy = 0.811\nsamples = 3\nvalue = [0, 1, 3]"] ;
13 -> 14 ;
15 [label="entropy = 0.0\nsamples = 1\nvalue = [0, 0, 1]"] ;
14 -> 15 ;
16 [label="entropy = 0.918\nsamples = 2\nvalue = [0, 1, 2]"] ;
14 -> 16 ;
17 [label="entropy = 0.0\nsamples = 3\nvalue = [0, 0, 3]"] ;
13 -> 17 ;
18 [label="entropy = 0.0\nsamples = 14\nvalue = [0, 0, 27]"] ;
8 -> 18 ;
}